<?xml version="1.0"?>
<opencv_storage>
<cascade>
  <stageType>BOOST</stageType>
  <featureType>HAAR</featureType>
  <height>18</height>
  <width>30</width>
  <stageParams>
    <boostType>GAB</boostType>
    <minHitRate>9.9500000476837158e-01</minHitRate>
    <maxFalseAlarm>5.0000000000000000e-01</maxFalseAlarm>
    <weightTrimRate>9.4999999999999996e-01</weightTrimRate>
    <maxDepth>1</maxDepth>
    <maxWeakCount>100</maxWeakCount></stageParams>
  <featureParams>
    <maxCatCount>0</maxCatCount>
    <featSize>1</featSize>
    <mode>BASIC</mode></featureParams>
  <stageNum>18</stageNum>
  <stages>
    <!-- stage 0 -->
    <_>
      <maxWeakCount>3</maxWeakCount>
      <stageThreshold>-1.3129227161407471e+00</stageThreshold>
      <weakClassifiers>
        <_>
          <internalNodes>
            0 -1 93 -1.2094701081514359e-01</internalNodes>
          <leafValues>
            6.7836254835128784e-01 -9.0711659193038940e-01</leafValues></_>
        <_>
          <internalNodes>
            0 -1 5 -2.2291246801614761e-02</internalNodes>
          <leafValues>
            5.0596678256988525e-01 -7.5981462001800537e-01</leafValues></_>
        <_>
          <internalNodes>
            0 -1 118 -3.2597776502370834e-02</internalNodes>
          <leafValues>
            3.7556394934654236e-01 -9.1177290678024292e-01</leafValues></_></weakClassifiers></_>
    <!-- stage 1 -->
    <_>
      <maxWeakCount>3</maxWeakCount>
      <stageThreshold>-1.2574474811553955e+00</stageThreshold>
      <weakClassifiers>
        <_>
          <internalNodes>
            0 -1 92 -1.0399027913808823e-01</internalNodes>
          <leafValues>
            2.6331362128257751e-01 -8.9051365852355957e-01</leafValues></_>
        <_>
          <internalNodes>
            0 -1 24 -3.0833687633275986e-03</internalNodes>
          <leafValues>
            3.4571424126625061e-01 -6.4935374259948730e-01</leafValues></_>
        <_>
          <internalNodes>
            0 -1 65 -2.6946319267153740e-02</internalNodes>
          <leafValues>
            2.8241997957229614e-01 -9.5475572347640991e-01</leafValues></_></weakClassifiers></_>
    <!-- stage 2 -->
    <_>
      <maxWeakCount>4</maxWeakCount>
      <stageThreshold>-1.1094017028808594e+00</stageThreshold>
      <weakClassifiers>
        <_>
          <internalNodes>
            0 -1 77 -1.5449917316436768e-01</internalNodes>
          <leafValues>
            7.0941336452960968e-02 -8.3157068490982056e-01</leafValues></_>
        <_>
          <internalNodes>
            0 -1 108 3.5912991734221578e-04</internalNodes>
          <leafValues>
            2.1104873716831207e-01 -8.5583597421646118e-01</leafValues></_>
        <_>
          <internalNodes>
            0 -1 18 -1.3871626928448677e-02</internalNodes>
          <leafValues>
            5.3773319721221924e-01 -5.4971760511398315e-01</leafValues></_>
        <_>
          <internalNodes>
            0 -1 100 -2.9203778831288218e-04</internalNodes>
          <leafValues>
            -9.8921638727188110e-01 2.2521059215068817e-01</leafValues></_></weakClassifiers></_>
    <!-- stage 3 -->
    <_>
      <maxWeakCount>5</maxWeakCount>
      <stageThreshold>-1.7191662788391113e+00</stageThreshold>
      <weakClassifiers>
        <_>
          <internalNodes>
            0 -1 109 3.5258602350950241e-02</internalNodes>
          <leafValues>
            -8.6145347356796265e-01 4.8019206151366234e-03</leafValues></_>
        <_>
          <internalNodes>
            0 -1 100 2.3417024931404740e-04</internalNodes>
          <leafValues>
            1.9806008040904999e-01 -9.1284358501434326e-01</leafValues></_>
        <_>
          <internalNodes>
            0 -1 21 -2.4641333147883415e-02</internalNodes>
          <leafValues>
            4.3467754125595093e-01 -5.1521748304367065e-01</leafValues></_>
        <_>
          <internalNodes>
            0 -1 72 -3.7573538720607758e-02</internalNodes>
          <leafValues>
            3.0218333005905151e-01 -7.5114238262176514e-01</leafValues></_>
        <_>
          <internalNodes>
            0 -1 107 -2.3129026521928608e-04</internalNodes>
          <leafValues>
            -8.6565208435058594e-01 2.1058696508407593e-01</leafValues></_></weakClassifiers></_>
    <!-- stage 4 -->
    <_>
      <maxWeakCount>6</maxWeakCount>
      <stageThreshold>-1.4385951757431030e+00</stageThreshold>
      <weakClassifiers>
        <_>
          <internalNodes>
            0 -1 142 1.1225393041968346e-02</internalNodes>
          <leafValues>
            -8.3047872781753540e-01 -7.3478758335113525e-02</leafValues></_>
        <_>
          <internalNodes>
            0 -1 59 3.4477058798074722e-03</internalNodes>
          <leafValues>
            -7.9141008853912354e-01 2.1107764542102814e-01</leafValues></_>
        <_>
          <internalNodes>
            0 -1 107 4.1303143370896578e-04</internalNodes>
          <leafValues>
            1.2860457599163055e-01 -9.9261283874511719e-01</leafValues></_>
        <_>
          <internalNodes>
            0 -1 17 -2.5673971977084875e-03</internalNodes>
          <leafValues>
            4.3193465471267700e-01 -4.4832998514175415e-01</leafValues></_>
        <_>
          <internalNodes>
            0 -1 94 -5.9314961545169353e-03</internalNodes>
          <leafValues>
            3.1801924109458923e-01 -5.3900837898254395e-01</leafValues></_>
        <_>
          <internalNodes>
            0 -1 121 1.3917147880420089e-03</internalNodes>
          <leafValues>
            1.8499979376792908e-01 -9.5234626531600952e-01</leafValues></_></weakClassifiers></_>
    <!-- stage 5 -->
    <_>
      <maxWeakCount>6</maxWeakCount>
      <stageThreshold>-1.3757171630859375e+00</stageThreshold>
      <weakClassifiers>
        <_>
          <internalNodes>
            0 -1 110 3.5632946528494358e-03</internalNodes>
          <leafValues>
            -6.1825728416442871e-01 5.3465348482131958e-01</leafValues></_>
        <_>
          <internalNodes>
            0 -1 6 -8.5255410522222519e-03</internalNodes>
          <leafValues>
            2.1359160542488098e-01 -7.3092222213745117e-01</leafValues></_>
        <_>
          <internalNodes>
            0 -1 128 2.2727353498339653e-03</internalNodes>
          <leafValues>
            -8.5129892826080322e-01 1.7462882399559021e-01</leafValues></_>
        <_>
          <internalNodes>
            0 -1 96 2.5274318177253008e-03</internalNodes>
          <leafValues>
            1.7392820119857788e-01 -9.2707884311676025e-01</leafValues></_>
        <_>
          <internalNodes>
            0 -1 55 -1.1768008116632700e-03</internalNodes>
          <leafValues>
            3.8371029496192932e-01 -4.1997247934341431e-01</leafValues></_>
        <_>
          <internalNodes>
            0 -1 151 3.8412850699387491e-05</internalNodes>
          <leafValues>
            -5.9785234928131104e-01 2.6712274551391602e-01</leafValues></_></weakClassifiers></_>
    <!-- stage 6 -->
    <_>
      <maxWeakCount>7</maxWeakCount>
      <stageThreshold>-1.5224033594131470e+00</stageThreshold>
      <weakClassifiers>
        <_>
          <internalNodes>
            0 -1 88 4.2332960292696953e-03</internalNodes>
          <leafValues>
            -6.0521316528320312e-01 6.2500000000000000e-01</leafValues></_>
        <_>
          <internalNodes>
            0 -1 91 1.3816104037687182e-03</internalNodes>
          <leafValues>
            -4.4589391350746155e-01 5.1954442262649536e-01</leafValues></_>
        <_>
          <internalNodes>
            0 -1 133 1.9026061054319143e-03</internalNodes>
          <leafValues>
            2.7181714773178101e-01 -8.8021427392959595e-01</leafValues></_>
        <_>
          <internalNodes>
            0 -1 25 -4.0252963081002235e-03</internalNodes>
          <leafValues>
            4.1151082515716553e-01 -4.5217961072921753e-01</leafValues></_>
        <_>
          <internalNodes>
            0 -1 87 3.0586734646931291e-04</internalNodes>
          <leafValues>
            1.8922434747219086e-01 -7.4584180116653442e-01</leafValues></_>
        <_>
          <internalNodes>
            0 -1 101 -4.6001246664673090e-04</internalNodes>
          <leafValues>
            -1. 1.8111999332904816e-01</leafValues></_>
        <_>
          <internalNodes>
            0 -1 4 2.4266536347568035e-03</internalNodes>
          <leafValues>
            -3.7293714284896851e-01 4.6100854873657227e-01</leafValues></_></weakClassifiers></_>
    <!-- stage 7 -->
    <_>
      <maxWeakCount>9</maxWeakCount>
      <stageThreshold>-1.5780265331268311e+00</stageThreshold>
      <weakClassifiers>
        <_>
          <internalNodes>
            0 -1 130 -3.5772817209362984e-03</internalNodes>
          <leafValues>
            2.9896906018257141e-01 -6.3805645704269409e-01</leafValues></_>
        <_>
          <internalNodes>
            0 -1 155 8.8765863329172134e-03</internalNodes>
          <leafValues>
            -3.7849518656730652e-01 4.8191949725151062e-01</leafValues></_>
        <_>
          <internalNodes>
            0 -1 115 -2.9227503546280786e-05</internalNodes>
          <leafValues>
            3.9155775308609009e-01 -3.9077612757682800e-01</leafValues></_>
        <_>
          <internalNodes>
            0 -1 45 -3.7295706570148468e-02</internalNodes>
          <leafValues>
            -8.2910490036010742e-01 1.8269094824790955e-01</leafValues></_>
        <_>
          <internalNodes>
            0 -1 111 1.2179145123809576e-03</internalNodes>
          <leafValues>
            1.7691932618618011e-01 -9.2242479324340820e-01</leafValues></_>
        <_>
          <internalNodes>
            0 -1 12 3.2067716121673584e-02</internalNodes>
          <leafValues>
            -5.9542417526245117e-01 2.0840100944042206e-01</leafValues></_>
        <_>
          <internalNodes>
            0 -1 83 2.5528776459395885e-03</internalNodes>
          <leafValues>
            1.1150043457746506e-01 -9.8851221799850464e-01</leafValues></_>
        <_>
          <internalNodes>
            0 -1 110 4.3739131651818752e-03</internalNodes>
          <leafValues>
            -2.2230754792690277e-01 8.3841270208358765e-01</leafValues></_>
        <_>
          <internalNodes>
            0 -1 150 8.1813952419906855e-04</internalNodes>
          <leafValues>
            -2.3545388877391815e-01 5.1706153154373169e-01</leafValues></_></weakClassifiers></_>
    <!-- stage 8 -->
    <_>
      <maxWeakCount>10</maxWeakCount>
      <stageThreshold>-1.6000208854675293e+00</stageThreshold>
      <weakClassifiers>
        <_>
          <internalNodes>
            0 -1 75 -3.2548815943300724e-03</internalNodes>
          <leafValues>
            4.0326339006423950e-01 -6.1058497428894043e-01</leafValues></_>
        <_>
          <internalNodes>
            0 -1 34 -5.5495710112154484e-03</internalNodes>
          <leafValues>
            3.6387142539024353e-01 -3.8419345021247864e-01</leafValues></_>
        <_>
          <internalNodes>
            0 -1 114 7.3793111369013786e-05</internalNodes>
          <leafValues>
            1.6170263290405273e-01 -8.7749928236007690e-01</leafValues></_>
        <_>
          <internalNodes>
            0 -1 38 1.6407862305641174e-02</internalNodes>
          <leafValues>
            -3.9228373765945435e-01 3.2688921689987183e-01</leafValues></_>
        <_>
          <internalNodes>
            0 -1 8 1.7467761645093560e-03</internalNodes>
          <leafValues>
            -6.0069096088409424e-01 2.2303585708141327e-01</leafValues></_>
        <_>
          <internalNodes>
            0 -1 144 3.8618468679487705e-03</internalNodes>
          <leafValues>
            -1.7881581187248230e-01 8.4212166070938110e-01</leafValues></_>
        <_>
          <internalNodes>
            0 -1 126 -1.2971847318112850e-03</internalNodes>
          <leafValues>
            -9.2993503808975220e-01 1.7540228366851807e-01</leafValues></_>
        <_>
          <internalNodes>
            0 -1 14 -2.0064373966306448e-03</internalNodes>
          <leafValues>
            3.4753015637397766e-01 -3.8078880310058594e-01</leafValues></_>
        <_>
          <internalNodes>
            0 -1 27 -2.3249881633091718e-04</internalNodes>
          <leafValues>
            1.7214110493659973e-01 -7.3535794019699097e-01</leafValues></_>
        <_>
          <internalNodes>
            0 -1 57 4.4404010986909270e-04</internalNodes>
          <leafValues>
            1.1357299983501434e-01 -9.4537609815597534e-01</leafValues></_></weakClassifiers></_>
    <!-- stage 9 -->
    <_>
      <maxWeakCount>9</maxWeakCount>
      <stageThreshold>-1.4795951843261719e+00</stageThreshold>
      <weakClassifiers>
        <_>
          <internalNodes>
            0 -1 159 2.8302972204983234e-03</internalNodes>
          <leafValues>
            -6.6730648279190063e-01 7.5027994811534882e-02</leafValues></_>
        <_>
          <internalNodes>
            0 -1 60 3.5395063459873199e-03</internalNodes>
          <leafValues>
            -4.9380308389663696e-01 2.1209204196929932e-01</leafValues></_>
        <_>
          <internalNodes>
            0 -1 97 -2.4213214055635035e-04</internalNodes>
          <leafValues>
            -7.6011198759078979e-01 1.5581940114498138e-01</leafValues></_>
        <_>
          <internalNodes>
            0 -1 41 -4.1799245082074776e-05</internalNodes>
          <leafValues>
            2.5457799434661865e-01 -4.6851450204849243e-01</leafValues></_>
        <_>
          <internalNodes>
            0 -1 1 5.0180293619632721e-03</internalNodes>
          <leafValues>
            -2.1881566941738129e-01 5.3750729560852051e-01</leafValues></_>
        <_>
          <internalNodes>
            0 -1 136 -9.0886623365804553e-04</internalNodes>
          <leafValues>
            -8.2762652635574341e-01 1.5584190189838409e-01</leafValues></_>
        <_>
          <internalNodes>
            0 -1 131 8.3045917563140392e-04</internalNodes>
          <leafValues>
            -3.0655726790428162e-01 4.2175018787384033e-01</leafValues></_>
        <_>
          <internalNodes>
            0 -1 137 8.5737888002768159e-04</internalNodes>
          <leafValues>
            1.3035933673381805e-01 -9.3171280622482300e-01</leafValues></_>
        <_>
          <internalNodes>
            0 -1 153 2.1716137416660786e-03</internalNodes>
          <leafValues>
            -2.6778078079223633e-01 4.7528517246246338e-01</leafValues></_></weakClassifiers></_>
    <!-- stage 10 -->
    <_>
      <maxWeakCount>12</maxWeakCount>
      <stageThreshold>-1.5804497003555298e+00</stageThreshold>
      <weakClassifiers>
        <_>
          <internalNodes>
            0 -1 39 1.6028562095016241e-03</internalNodes>
          <leafValues>
            -6.4651733636856079e-01 1.1578947305679321e-01</leafValues></_>
        <_>
          <internalNodes>
            0 -1 21 -2.9142465442419052e-02</internalNodes>
          <leafValues>
            3.1543219089508057e-01 -4.5531058311462402e-01</leafValues></_>
        <_>
          <internalNodes>
            0 -1 147 3.5442519001662731e-03</internalNodes>
          <leafValues>
            -1.6654916107654572e-01 7.5109869241714478e-01</leafValues></_>
        <_>
          <internalNodes>
            0 -1 36 7.5778533937409520e-04</internalNodes>
          <leafValues>
            1.5880949795246124e-01 -8.8229465484619141e-01</leafValues></_>
        <_>
          <internalNodes>
            0 -1 84 -2.0511668175458908e-02</internalNodes>
          <leafValues>
            1.3415254652500153e-01 -8.6570024490356445e-01</leafValues></_>
        <_>
          <internalNodes>
            0 -1 106 -1.9207436707802117e-04</internalNodes>
          <leafValues>
            -7.1918040513992310e-01 1.2670838832855225e-01</leafValues></_>
        <_>
          <internalNodes>
            0 -1 134 -7.9571595415472984e-04</internalNodes>
          <leafValues>
            3.8610103726387024e-01 -2.9618573188781738e-01</leafValues></_>
        <_>
          <internalNodes>
            0 -1 161 -1.3608918525278568e-03</internalNodes>
          <leafValues>
            4.2604640126228333e-01 -2.6674485206604004e-01</leafValues></_>
        <_>
          <internalNodes>
            0 -1 73 5.3983917459845543e-03</internalNodes>
          <leafValues>
            1.2538598477840424e-01 -9.2292839288711548e-01</leafValues></_>
        <_>
          <internalNodes>
            0 -1 89 1.9206043798476458e-03</internalNodes>
          <leafValues>
            -2.6689815521240234e-01 4.6478256583213806e-01</leafValues></_>
        <_>
          <internalNodes>
            0 -1 80 -1.4351202175021172e-02</internalNodes>
          <leafValues>
            -8.5546976327896118e-01 1.4740021526813507e-01</leafValues></_>
        <_>
          <internalNodes>
            0 -1 46 2.9824697412550449e-03</internalNodes>
          <leafValues>
            -4.0083786845207214e-01 2.6769882440567017e-01</leafValues></_></weakClassifiers></_>
    <!-- stage 11 -->
    <_>
      <maxWeakCount>11</maxWeakCount>
      <stageThreshold>-1.5076714754104614e+00</stageThreshold>
      <weakClassifiers>
        <_>
          <internalNodes>
            0 -1 61 -4.1524926200509071e-03</internalNodes>
          <leafValues>
            4.9673202633857727e-01 -5.8470237255096436e-01</leafValues></_>
        <_>
          <internalNodes>
            0 -1 7 -2.5474310386925936e-03</internalNodes>
          <leafValues>
            8.8982939720153809e-02 -8.2932692766189575e-01</leafValues></_>
        <_>
          <internalNodes>
            0 -1 124 -4.3521820771275088e-05</internalNodes>
          <leafValues>
            2.1100062131881714e-01 -4.9547302722930908e-01</leafValues></_>
        <_>
          <internalNodes>
            0 -1 105 1.2092757242498919e-04</internalNodes>
          <leafValues>
            1.3472956418991089e-01 -9.3654423952102661e-01</leafValues></_>
        <_>
          <internalNodes>
            0 -1 122 4.2870184406638145e-03</internalNodes>
          <leafValues>
            -2.3243305087089539e-01 5.3390562534332275e-01</leafValues></_>
        <_>
          <internalNodes>
            0 -1 79 1.1989326449111104e-03</internalNodes>
          <leafValues>
            -3.4716072678565979e-01 3.0652374029159546e-01</leafValues></_>
        <_>
          <internalNodes>
            0 -1 67 3.9917714893817902e-03</internalNodes>
          <leafValues>
            -1.2061291933059692e-01 8.1184256076812744e-01</leafValues></_>
        <_>
          <internalNodes>
            0 -1 105 -5.9889796830248088e-05</internalNodes>
          <leafValues>
            -6.6370958089828491e-01 1.7628136277198792e-01</leafValues></_>
        <_>
          <internalNodes>
            0 -1 63 -4.9350783228874207e-03</internalNodes>
          <leafValues>
            1.9051238894462585e-01 -5.6414312124252319e-01</leafValues></_>
        <_>
          <internalNodes>
            0 -1 0 -1.5356220537796617e-03</internalNodes>
          <leafValues>
            5.3162485361099243e-01 -2.1399636566638947e-01</leafValues></_>
        <_>
          <internalNodes>
            0 -1 51 9.8733673803508282e-04</internalNodes>
          <leafValues>
            -3.7671461701393127e-01 2.9434344172477722e-01</leafValues></_></weakClassifiers></_>
    <!-- stage 12 -->
    <_>
      <maxWeakCount>13</maxWeakCount>
      <stageThreshold>-1.4885004758834839e+00</stageThreshold>
      <weakClassifiers>
        <_>
          <internalNodes>
            0 -1 88 3.5402504727244377e-03</internalNodes>
          <leafValues>
            -6.0754501819610596e-01 2.9764452576637268e-01</leafValues></_>
        <_>
          <internalNodes>
            0 -1 50 -3.8066867273300886e-04</internalNodes>
          <leafValues>
            3.1551355123519897e-01 -3.7595713138580322e-01</leafValues></_>
        <_>
          <internalNodes>
            0 -1 115 -3.5992678022012115e-04</internalNodes>
          <leafValues>
            -1. 1.0538265109062195e-01</leafValues></_>
        <_>
          <internalNodes>
            0 -1 115 -3.4527780371718109e-05</internalNodes>
          <leafValues>
            3.1878510117530823e-01 -3.7511172890663147e-01</leafValues></_>
        <_>
          <internalNodes>
            0 -1 9 2.2192485630512238e-03</internalNodes>
          <leafValues>
            -2.5478947162628174e-01 4.6523025631904602e-01</leafValues></_>
        <_>
          <internalNodes>
            0 -1 76 1.2417859397828579e-03</internalNodes>
          <leafValues>
            -2.4912095069885254e-01 4.4971993565559387e-01</leafValues></_>
        <_>
          <internalNodes>
            0 -1 13 -6.2720635905861855e-03</internalNodes>
          <leafValues>
            2.5727173686027527e-01 -3.9435517787933350e-01</leafValues></_>
        <_>
          <internalNodes>
            0 -1 86 4.4031118159182370e-04</internalNodes>
          <leafValues>
            1.4785920083522797e-01 -8.1041008234024048e-01</leafValues></_>
        <_>
          <internalNodes>
            0 -1 64 4.2475551366806030e-02</internalNodes>
          <leafValues>
            -7.4820971488952637e-01 1.2450455129146576e-01</leafValues></_>
        <_>
          <internalNodes>
            0 -1 44 -4.5444967690855265e-04</internalNodes>
          <leafValues>
            2.8656142950057983e-01 -3.1967550516128540e-01</leafValues></_>
        <_>
          <internalNodes>
            0 -1 95 1.9545005634427071e-03</internalNodes>
          <leafValues>
            1.1040509492158890e-01 -9.9216026067733765e-01</leafValues></_>
        <_>
          <internalNodes>
            0 -1 56 5.4200766608119011e-03</internalNodes>
          <leafValues>
            -1.3486753404140472e-01 8.7874674797058105e-01</leafValues></_>
        <_>
          <internalNodes>
            0 -1 103 -1.2159526813775301e-03</internalNodes>
          <leafValues>
            -9.2787402868270874e-01 1.2853355705738068e-01</leafValues></_></weakClassifiers></_>
    <!-- stage 13 -->
    <_>
      <maxWeakCount>12</maxWeakCount>
      <stageThreshold>-1.4955523014068604e+00</stageThreshold>
      <weakClassifiers>
        <_>
          <internalNodes>
            0 -1 154 1.9134667236357927e-03</internalNodes>
          <leafValues>
            -6.4395886659622192e-01 -1.6538036987185478e-02</leafValues></_>
        <_>
          <internalNodes>
            0 -1 58 -3.1984457746148109e-04</internalNodes>
          <leafValues>
            2.5573879480361938e-01 -3.4691181778907776e-01</leafValues></_>
        <_>
          <internalNodes>
            0 -1 85 1.1764034570660442e-04</internalNodes>
          <leafValues>
            1.5156733989715576e-01 -6.4317768812179565e-01</leafValues></_>
        <_>
          <internalNodes>
            0 -1 157 4.1803596541285515e-03</internalNodes>
          <leafValues>
            -1.8466222286224365e-01 5.0630831718444824e-01</leafValues></_>
        <_>
          <internalNodes>
            0 -1 53 -1.4520403929054737e-03</internalNodes>
          <leafValues>
            3.9138951897621155e-01 -2.3302824795246124e-01</leafValues></_>
        <_>
          <internalNodes>
            0 -1 119 1.8188410904258490e-03</internalNodes>
          <leafValues>
            1.2111143767833710e-01 -8.0341756343841553e-01</leafValues></_>
        <_>
          <internalNodes>
            0 -1 110 5.0197169184684753e-03</internalNodes>
          <leafValues>
            -1.6068638861179352e-01 6.8242108821868896e-01</leafValues></_>
        <_>
          <internalNodes>
            0 -1 102 -9.5557532040402293e-04</internalNodes>
          <leafValues>
            3.9409956336021423e-01 -2.1938182413578033e-01</leafValues></_>
        <_>
          <internalNodes>
            0 -1 15 2.6511512696743011e-03</internalNodes>
          <leafValues>
            -2.4562288820743561e-01 3.7110754847526550e-01</leafValues></_>
        <_>
          <internalNodes>
            0 -1 123 -4.0313568897545338e-03</internalNodes>
          <leafValues>
            5.7192856073379517e-01 -1.8873925507068634e-01</leafValues></_>
        <_>
          <internalNodes>
            0 -1 42 9.7748101688921452e-04</internalNodes>
          <leafValues>
            1.1605809628963470e-01 -8.4083282947540283e-01</leafValues></_>
        <_>
          <internalNodes>
            0 -1 47 1.0514333844184875e-03</internalNodes>
          <leafValues>
            -3.1841006875038147e-01 3.3870241045951843e-01</leafValues></_></weakClassifiers></_>
    <!-- stage 14 -->
    <_>
      <maxWeakCount>16</maxWeakCount>
      <stageThreshold>-1.5080077648162842e+00</stageThreshold>
      <weakClassifiers>
        <_>
          <internalNodes>
            0 -1 75 -4.9823559820652008e-03</internalNodes>
          <leafValues>
            3.2522797584533691e-01 -5.7615178823471069e-01</leafValues></_>
        <_>
          <internalNodes>
            0 -1 33 -4.9849168863147497e-04</internalNodes>
          <leafValues>
            1.7698386311531067e-01 -4.2107602953910828e-01</leafValues></_>
        <_>
          <internalNodes>
            0 -1 104 1.7977729439735413e-03</internalNodes>
          <leafValues>
            9.0622112154960632e-02 -8.9023822546005249e-01</leafValues></_>
        <_>
          <internalNodes>
            0 -1 52 6.2499986961483955e-03</internalNodes>
          <leafValues>
            -3.8459122180938721e-01 2.1854826807975769e-01</leafValues></_>
        <_>
          <internalNodes>
            0 -1 62 4.8557795584201813e-02</internalNodes>
          <leafValues>
            -2.0533238351345062e-01 4.2662921547889709e-01</leafValues></_>
        <_>
          <internalNodes>
            0 -1 26 4.4556229840964079e-04</internalNodes>
          <leafValues>
            1.5560129284858704e-01 -6.3940691947937012e-01</leafValues></_>
        <_>
          <internalNodes>
            0 -1 74 4.2114046664210036e-05</internalNodes>
          <leafValues>
            -3.0387771129608154e-01 3.1398379802703857e-01</leafValues></_>
        <_>
          <internalNodes>
            0 -1 74 8.2949694478884339e-04</internalNodes>
          <leafValues>
            1.0041140019893646e-01 -9.6114826202392578e-01</leafValues></_>
        <_>
          <internalNodes>
            0 -1 145 -6.1379475519061089e-03</internalNodes>
          <leafValues>
            2.4820576608181000e-01 -3.5756331682205200e-01</leafValues></_>
        <_>
          <internalNodes>
            0 -1 69 5.6596919894218445e-03</internalNodes>
          <leafValues>
            -9.2704288661479950e-02 8.1289243698120117e-01</leafValues></_>
        <_>
          <internalNodes>
            0 -1 141 1.6978094354271889e-03</internalNodes>
          <leafValues>
            1.5936431288719177e-01 -5.8503437042236328e-01</leafValues></_>
        <_>
          <internalNodes>
            0 -1 90 1.8253582529723644e-03</internalNodes>
          <leafValues>
            -2.5561562180519104e-01 4.0278223156929016e-01</leafValues></_>
        <_>
          <internalNodes>
            0 -1 139 -4.3296944350004196e-03</internalNodes>
          <leafValues>
            7.9258632659912109e-01 -1.2274147570133209e-01</leafValues></_>
        <_>
          <internalNodes>
            0 -1 127 2.1269195713102818e-03</internalNodes>
          <leafValues>
            1.2165572494268417e-01 -9.3188512325286865e-01</leafValues></_>
        <_>
          <internalNodes>
            0 -1 37 -2.7271611616015434e-03</internalNodes>
          <leafValues>
            8.2046598196029663e-01 -1.2700267136096954e-01</leafValues></_>
        <_>
          <internalNodes>
            0 -1 29 -8.2848768215626478e-04</internalNodes>
          <leafValues>
            2.5617900490760803e-01 -3.2281088829040527e-01</leafValues></_></weakClassifiers></_>
    <!-- stage 15 -->
    <_>
      <maxWeakCount>18</maxWeakCount>
      <stageThreshold>-1.4621566534042358e+00</stageThreshold>
      <weakClassifiers>
        <_>
          <internalNodes>
            0 -1 71 4.2936438694596291e-03</internalNodes>
          <leafValues>
            -5.8375072479248047e-01 1.8588235974311829e-01</leafValues></_>
        <_>
          <internalNodes>
            0 -1 43 -9.8631426226347685e-04</internalNodes>
          <leafValues>
            2.5072637200355530e-01 -3.2478871941566467e-01</leafValues></_>
        <_>
          <internalNodes>
            0 -1 35 -4.8449993133544922e-02</internalNodes>
          <leafValues>
            5.3920465707778931e-01 -1.6073809564113617e-01</leafValues></_>
        <_>
          <internalNodes>
            0 -1 66 3.9980389177799225e-02</internalNodes>
          <leafValues>
            -1.8918541073799133e-01 4.5797336101531982e-01</leafValues></_>
        <_>
          <internalNodes>
            0 -1 23 -2.2188713774085045e-03</internalNodes>
          <leafValues>
            2.7749386429786682e-01 -3.4127193689346313e-01</leafValues></_>
        <_>
          <internalNodes>
            0 -1 140 -3.1167457345873117e-03</internalNodes>
          <leafValues>
            6.5736371278762817e-01 -1.3145433366298676e-01</leafValues></_>
        <_>
          <internalNodes>
            0 -1 113 -2.3950092145241797e-04</internalNodes>
          <leafValues>
            -6.8356645107269287e-01 1.7104496061801910e-01</leafValues></_>
        <_>
          <internalNodes>
            0 -1 112 3.5440252395346761e-04</internalNodes>
          <leafValues>
            7.0855945348739624e-02 -7.3790091276168823e-01</leafValues></_>
        <_>
          <internalNodes>
            0 -1 3 2.4818759411573410e-03</internalNodes>
          <leafValues>
            -2.3977605998516083e-01 3.4500929713249207e-01</leafValues></_>
        <_>
          <internalNodes>
            0 -1 16 2.7323323301970959e-03</internalNodes>
          <leafValues>
            -6.6900843381881714e-01 1.0667156428098679e-01</leafValues></_>
        <_>
          <internalNodes>
            0 -1 22 -4.4243759475648403e-05</internalNodes>
          <leafValues>
            1.8077251315116882e-01 -4.3141219019889832e-01</leafValues></_>
        <_>
          <internalNodes>
            0 -1 30 -7.5365731026977301e-04</internalNodes>
          <leafValues>
            2.6198467612266541e-01 -2.9599073529243469e-01</leafValues></_>
        <_>
          <internalNodes>
            0 -1 31 8.8098831474781036e-03</internalNodes>
          <leafValues>
            -1.2735679745674133e-01 6.3275861740112305e-01</leafValues></_>
        <_>
          <internalNodes>
            0 -1 28 5.2370759658515453e-04</internalNodes>
          <leafValues>
            1.4940395951271057e-01 -5.4918545484542847e-01</leafValues></_>
        <_>
          <internalNodes>
            0 -1 149 2.0746202208101749e-03</internalNodes>
          <leafValues>
            -1.8049332499504089e-01 4.7571957111358643e-01</leafValues></_>
        <_>
          <internalNodes>
            0 -1 129 9.6687121549621224e-04</internalNodes>
          <leafValues>
            1.1396332830190659e-01 -7.1519273519515991e-01</leafValues></_>
        <_>
          <internalNodes>
            0 -1 148 7.6527874916791916e-03</internalNodes>
          <leafValues>
            -1.6407561302185059e-01 5.4204761981964111e-01</leafValues></_>
        <_>
          <internalNodes>
            0 -1 81 -1.0667517781257629e-02</internalNodes>
          <leafValues>
            -4.5018699765205383e-01 1.9070996344089508e-01</leafValues></_></weakClassifiers></_>
    <!-- stage 16 -->
    <_>
      <maxWeakCount>18</maxWeakCount>
      <stageThreshold>-1.4791629314422607e+00</stageThreshold>
      <weakClassifiers>
        <_>
          <internalNodes>
            0 -1 156 1.5733160544186831e-03</internalNodes>
          <leafValues>
            -6.1484634876251221e-01 2.7322403620928526e-03</leafValues></_>
        <_>
          <internalNodes>
            0 -1 158 -2.9887151904404163e-03</internalNodes>
          <leafValues>
            3.6210554838180542e-01 -2.6896354556083679e-01</leafValues></_>
        <_>
          <internalNodes>
            0 -1 135 1.7474096966907382e-04</internalNodes>
          <leafValues>
            -4.1093149781227112e-01 1.8971338868141174e-01</leafValues></_>
        <_>
          <internalNodes>
            0 -1 78 -1.0278441011905670e-02</internalNodes>
          <leafValues>
            1.3808143138885498e-01 -5.2852743864059448e-01</leafValues></_>
        <_>
          <internalNodes>
            0 -1 88 3.4386219922453165e-03</internalNodes>
          <leafValues>
            -1.3937565684318542e-01 5.3272813558578491e-01</leafValues></_>
        <_>
          <internalNodes>
            0 -1 24 -3.2108845189213753e-03</internalNodes>
          <leafValues>
            2.5792777538299561e-01 -3.2022783160209656e-01</leafValues></_>
        <_>
          <internalNodes>
            0 -1 32 -1.6251564025878906e-02</internalNodes>
          <leafValues>
            5.2379924058914185e-01 -1.6692817211151123e-01</leafValues></_>
        <_>
          <internalNodes>
            0 -1 133 1.5171922277659178e-03</internalNodes>
          <leafValues>
            9.3774154782295227e-02 -7.5351041555404663e-01</leafValues></_>
        <_>
          <internalNodes>
            0 -1 11 -7.4111536145210266e-02</internalNodes>
          <leafValues>
            -8.3978629112243652e-01 8.2524180412292480e-02</leafValues></_>
        <_>
          <internalNodes>
            0 -1 70 -4.3774787336587906e-03</internalNodes>
          <leafValues>
            7.2328406572341919e-01 -1.2349220365285873e-01</leafValues></_>
        <_>
          <internalNodes>
            0 -1 82 1.6447663074359298e-03</internalNodes>
          <leafValues>
            9.3868754804134369e-02 -8.9258378744125366e-01</leafValues></_>
        <_>
          <internalNodes>
            0 -1 143 -1.9359320867806673e-03</internalNodes>
          <leafValues>
            3.3198052644729614e-01 -2.1563047170639038e-01</leafValues></_>
        <_>
          <internalNodes>
            0 -1 138 -1.2776785297319293e-04</internalNodes>
          <leafValues>
            -5.6659251451492310e-01 1.3198289275169373e-01</leafValues></_>
        <_>
          <internalNodes>
            0 -1 40 9.0951090678572655e-03</internalNodes>
          <leafValues>
            -2.6084500551223755e-01 2.5597470998764038e-01</leafValues></_>
        <_>
          <internalNodes>
            0 -1 19 -2.3201206931844354e-04</internalNodes>
          <leafValues>
            1.9530619680881500e-01 -3.8507905602455139e-01</leafValues></_>
        <_>
          <internalNodes>
            0 -1 117 2.3103081621229649e-03</internalNodes>
          <leafValues>
            -1.5433751046657562e-01 4.9600005149841309e-01</leafValues></_>
        <_>
          <internalNodes>
            0 -1 125 -1.1419560760259628e-03</internalNodes>
          <leafValues>
            -9.0311932563781738e-01 9.7609087824821472e-02</leafValues></_>
        <_>
          <internalNodes>
            0 -1 68 1.1274628341197968e-02</internalNodes>
          <leafValues>
            -1.1837840080261230e-01 7.9610514640808105e-01</leafValues></_></weakClassifiers></_>
    <!-- stage 17 -->
    <_>
      <maxWeakCount>17</maxWeakCount>
      <stageThreshold>-1.4647446870803833e+00</stageThreshold>
      <weakClassifiers>
        <_>
          <internalNodes>
            0 -1 10 -5.0788121297955513e-03</internalNodes>
          <leafValues>
            3.4707903861999512e-01 -5.6866955757141113e-01</leafValues></_>
        <_>
          <internalNodes>
            0 -1 20 -3.2758541405200958e-02</internalNodes>
          <leafValues>
            2.5220853090286255e-01 -3.1912288069725037e-01</leafValues></_>
        <_>
          <internalNodes>
            0 -1 69 -3.7217233330011368e-03</internalNodes>
          <leafValues>
            6.2079685926437378e-01 -1.3524064421653748e-01</leafValues></_>
        <_>
          <internalNodes>
            0 -1 2 1.3522943481802940e-03</internalNodes>
          <leafValues>
            -1.4533679187297821e-01 4.7746068239212036e-01</leafValues></_>
        <_>
          <internalNodes>
            0 -1 48 5.4908590391278267e-04</internalNodes>
          <leafValues>
            8.6894102394580841e-02 -9.6530848741531372e-01</leafValues></_>
        <_>
          <internalNodes>
            0 -1 49 3.0752299353480339e-03</internalNodes>
          <leafValues>
            -6.0672497749328613e-01 1.1863072216510773e-01</leafValues></_>
        <_>
          <internalNodes>
            0 -1 99 4.1662329749669880e-05</internalNodes>
          <leafValues>
            -2.7433365583419800e-01 2.6843851804733276e-01</leafValues></_>
        <_>
          <internalNodes>
            0 -1 54 -1.3156526256352663e-03</internalNodes>
          <leafValues>
            3.3384275436401367e-01 -2.2457769513130188e-01</leafValues></_>
        <_>
          <internalNodes>
            0 -1 106 2.2596355120185763e-04</internalNodes>
          <leafValues>
            7.0612438023090363e-02 -9.1245055198669434e-01</leafValues></_>
        <_>
          <internalNodes>
            0 -1 152 -1.0967033449560404e-03</internalNodes>
          <leafValues>
            3.3006602525711060e-01 -2.1755452454090118e-01</leafValues></_>
        <_>
          <internalNodes>
            0 -1 144 5.3732832893729210e-03</internalNodes>
          <leafValues>
            -1.0682547837495804e-01 6.6193705797195435e-01</leafValues></_>
        <_>
          <internalNodes>
            0 -1 132 2.9286816716194153e-03</internalNodes>
          <leafValues>
            -1.0563018172979355e-01 6.1712270975112915e-01</leafValues></_>
        <_>
          <internalNodes>
            0 -1 120 -1.9773812964558601e-02</internalNodes>
          <leafValues>
            1.2935292720794678e-01 -5.9832173585891724e-01</leafValues></_>
        <_>
          <internalNodes>
            0 -1 146 -1.7941431142389774e-03</internalNodes>
          <leafValues>
            4.6845379471778870e-01 -1.4122644066810608e-01</leafValues></_>
        <_>
          <internalNodes>
            0 -1 98 2.4910904467105865e-03</internalNodes>
          <leafValues>
            9.0737231075763702e-02 -7.8371757268905640e-01</leafValues></_>
        <_>
          <internalNodes>
            0 -1 160 1.1314381845295429e-03</internalNodes>
          <leafValues>
            -2.2579471766948700e-01 3.2033851742744446e-01</leafValues></_>
        <_>
          <internalNodes>
            0 -1 116 3.4475768916308880e-04</internalNodes>
          <leafValues>
            6.0597106814384460e-02 -9.8450851440429688e-01</leafValues></_></weakClassifiers></_></stages>
  <features>
    <_>
      <rects>
        <_>
          0 4 2 4 -1.</_>
        <_>
          0 4 1 2 2.</_>
        <_>
          1 6 1 2 2.</_></rects>
      <tilted>0</tilted></_>
    <_>
      <rects>
        <_>
          0 4 2 12 -1.</_>
        <_>
          1 4 1 12 2.</_></rects>
      <tilted>0</tilted></_>
    <_>
      <rects>
        <_>
          0 5 3 1 -1.</_>
        <_>
          1 5 1 1 3.</_></rects>
      <tilted>0</tilted></_>
    <_>
      <rects>
        <_>
          0 8 3 7 -1.</_>
        <_>
          1 8 1 7 3.</_></rects>
      <tilted>0</tilted></_>
    <_>
      <rects>
        <_>
          0 8 3 8 -1.</_>
        <_>
          1 8 1 8 3.</_></rects>
      <tilted>0</tilted></_>
    <_>
      <rects>
        <_>
          0 8 12 3 -1.</_>
        <_>
          6 8 6 3 2.</_></rects>
      <tilted>0</tilted></_>
    <_>
      <rects>
        <_>
          0 9 21 2 -1.</_>
        <_>
          7 9 7 2 3.</_></rects>
      <tilted>0</tilted></_>
    <_>
      <rects>
        <_>
          0 9 22 1 -1.</_>
        <_>
          11 9 11 1 2.</_></rects>
      <tilted>0</tilted></_>
    <_>
      <rects>
        <_>
          0 11 23 2 -1.</_>
        <_>
          0 12 23 1 2.</_></rects>
      <tilted>0</tilted></_>
    <_>
      <rects>
        <_>
          0 12 3 3 -1.</_>
        <_>
          1 12 1 3 3.</_></rects>
      <tilted>0</tilted></_>
    <_>
      <rects>
        <_>
          0 16 3 2 -1.</_>
        <_>
          1 16 1 2 3.</_></rects>
      <tilted>0</tilted></_>
    <_>
      <rects>
        <_>
          1 6 8 5 -1.</_>
        <_>
          5 6 4 5 2.</_></rects>
      <tilted>0</tilted></_>
    <_>
      <rects>
        <_>
          1 7 16 10 -1.</_>
        <_>
          1 7 8 5 2.</_>
        <_>
          9 12 8 5 2.</_></rects>
      <tilted>0</tilted></_>
    <_>
      <rects>
        <_>
          2 5 12 2 -1.</_>
        <_>
          6 5 4 2 3.</_></rects>
      <tilted>0</tilted></_>
    <_>
      <rects>
        <_>
          2 6 2 7 -1.</_>
        <_>
          3 6 1 7 2.</_></rects>
      <tilted>0</tilted></_>
    <_>
      <rects>
        <_>
          2 8 2 10 -1.</_>
        <_>
          2 8 1 5 2.</_>
        <_>
          3 13 1 5 2.</_></rects>
      <tilted>0</tilted></_>
    <_>
      <rects>
        <_>
          2 8 14 8 -1.</_>
        <_>
          2 8 7 4 2.</_>
        <_>
          9 12 7 4 2.</_></rects>
      <tilted>0</tilted></_>
    <_>
      <rects>
        <_>
          3 4 2 9 -1.</_>
        <_>
          4 4 1 9 2.</_></rects>
      <tilted>0</tilted></_>
    <_>
      <rects>
        <_>
          3 4 4 10 -1.</_>
        <_>
          5 4 2 10 2.</_></rects>
      <tilted>0</tilted></_>
    <_>
      <rects>
        <_>
          3 5 2 3 -1.</_>
        <_>
          4 5 1 3 2.</_></rects>
      <tilted>0</tilted></_>
    <_>
      <rects>
        <_>
          3 6 9 7 -1.</_>
        <_>
          6 6 3 7 3.</_></rects>
      <tilted>0</tilted></_>
    <_>
      <rects>
        <_>
          3 6 9 8 -1.</_>
        <_>
          6 6 3 8 3.</_></rects>
      <tilted>0</tilted></_>
    <_>
      <rects>
        <_>
          3 8 7 3 -1.</_>
        <_>
          3 9 7 1 3.</_></rects>
      <tilted>0</tilted></_>
    <_>
      <rects>
        <_>
          4 4 6 2 -1.</_>
        <_>
          4 5 6 1 2.</_></rects>
      <tilted>0</tilted></_>
    <_>
      <rects>
        <_>
          4 5 2 8 -1.</_>
        <_>
          5 5 1 8 2.</_></rects>
      <tilted>0</tilted></_>
    <_>
      <rects>
        <_>
          4 5 2 11 -1.</_>
        <_>
          5 5 1 11 2.</_></rects>
      <tilted>0</tilted></_>
    <_>
      <rects>
        <_>
          4 7 5 3 -1.</_>
        <_>
          4 8 5 1 3.</_></rects>
      <tilted>0</tilted></_>
    <_>
      <rects>
        <_>
          4 7 21 2 -1.</_>
        <_>
          4 8 21 1 2.</_></rects>
      <tilted>0</tilted></_>
    <_>
      <rects>
        <_>
          4 9 8 3 -1.</_>
        <_>
          4 10 8 1 3.</_></rects>
      <tilted>0</tilted></_>
    <_>
      <rects>
        <_>
          4 10 2 4 -1.</_>
        <_>
          5 10 1 4 2.</_></rects>
      <tilted>0</tilted></_>
    <_>
      <rects>
        <_>
          4 13 2 5 -1.</_>
        <_>
          5 13 1 5 2.</_></rects>
      <tilted>0</tilted></_>
    <_>
      <rects>
        <_>
          4 14 9 2 -1.</_>
        <_>
          7 14 3 2 3.</_></rects>
      <tilted>0</tilted></_>
    <_>
      <rects>
        <_>
          4 15 24 2 -1.</_>
        <_>
          4 15 12 1 2.</_>
        <_>
          16 16 12 1 2.</_></rects>
      <tilted>0</tilted></_>
    <_>
      <rects>
        <_>
          5 2 2 5 -1.</_>
        <_>
          6 2 1 5 2.</_></rects>
      <tilted>0</tilted></_>
    <_>
      <rects>
        <_>
          5 4 2 11 -1.</_>
        <_>
          6 4 1 11 2.</_></rects>
      <tilted>0</tilted></_>
    <_>
      <rects>
        <_>
          5 6 22 6 -1.</_>
        <_>
          5 6 11 3 2.</_>
        <_>
          16 9 11 3 2.</_></rects>
      <tilted>0</tilted></_>
    <_>
      <rects>
        <_>
          5 8 8 3 -1.</_>
        <_>
          5 9 8 1 3.</_></rects>
      <tilted>0</tilted></_>
    <_>
      <rects>
        <_>
          5 14 1 2 -1.</_>
        <_>
          5 15 1 1 2.</_></rects>
      <tilted>0</tilted></_>
    <_>
      <rects>
        <_>
          6 1 18 6 -1.</_>
        <_>
          12 1 6 6 3.</_></rects>
      <tilted>0</tilted></_>
    <_>
      <rects>
        <_>
          6 3 4 2 -1.</_>
        <_>
          6 3 2 1 2.</_>
        <_>
          8 4 2 1 2.</_></rects>
      <tilted>0</tilted></_>
    <_>
      <rects>
        <_>
          6 4 15 3 -1.</_>
        <_>
          11 4 5 3 3.</_></rects>
      <tilted>0</tilted></_>
    <_>
      <rects>
        <_>
          6 5 1 2 -1.</_>
        <_>
          6 6 1 1 2.</_></rects>
      <tilted>0</tilted></_>
    <_>
      <rects>
        <_>
          6 8 12 2 -1.</_>
        <_>
          10 8 4 2 3.</_></rects>
      <tilted>0</tilted></_>
    <_>
      <rects>
        <_>
          6 12 2 5 -1.</_>
        <_>
          7 12 1 5 2.</_></rects>
      <tilted>0</tilted></_>
    <_>
      <rects>
        <_>
          7 2 2 4 -1.</_>
        <_>
          8 2 1 4 2.</_></rects>
      <tilted>0</tilted></_>
    <_>
      <rects>
        <_>
          7 3 16 14 -1.</_>
        <_>
          15 3 8 14 2.</_></rects>
      <tilted>0</tilted></_>
    <_>
      <rects>
        <_>
          7 4 15 14 -1.</_>
        <_>
          12 4 5 14 3.</_></rects>
      <tilted>0</tilted></_>
    <_>
      <rects>
        <_>
          7 6 9 7 -1.</_>
        <_>
          10 6 3 7 3.</_></rects>
      <tilted>0</tilted></_>
    <_>
      <rects>
        <_>
          7 9 6 1 -1.</_>
        <_>
          10 9 3 1 2.</_></rects>
      <tilted>0</tilted></_>
    <_>
      <rects>
        <_>
          7 12 16 2 -1.</_>
        <_>
          7 13 16 1 2.</_></rects>
      <tilted>0</tilted></_>
    <_>
      <rects>
        <_>
          7 13 2 4 -1.</_>
        <_>
          8 13 1 4 2.</_></rects>
      <tilted>0</tilted></_>
    <_>
      <rects>
        <_>
          7 15 8 2 -1.</_>
        <_>
          7 16 8 1 2.</_></rects>
      <tilted>0</tilted></_>
    <_>
      <rects>
        <_>
          8 1 10 17 -1.</_>
        <_>
          13 1 5 17 2.</_></rects>
      <tilted>0</tilted></_>
    <_>
      <rects>
        <_>
          8 2 2 2 -1.</_>
        <_>
          8 3 2 1 2.</_></rects>
      <tilted>0</tilted></_>
    <_>
      <rects>
        <_>
          8 2 2 3 -1.</_>
        <_>
          8 3 2 1 3.</_></rects>
      <tilted>0</tilted></_>
    <_>
      <rects>
        <_>
          8 2 4 2 -1.</_>
        <_>
          8 3 4 1 2.</_></rects>
      <tilted>0</tilted></_>
    <_>
      <rects>
        <_>
          8 3 1 3 -1.</_>
        <_>
          8 4 1 1 3.</_></rects>
      <tilted>0</tilted></_>
    <_>
      <rects>
        <_>
          8 9 9 1 -1.</_>
        <_>
          11 9 3 1 3.</_></rects>
      <tilted>0</tilted></_>
    <_>
      <rects>
        <_>
          8 10 2 8 -1.</_>
        <_>
          8 10 1 4 2.</_>
        <_>
          9 14 1 4 2.</_></rects>
      <tilted>0</tilted></_>
    <_>
      <rects>
        <_>
          8 12 14 2 -1.</_>
        <_>
          8 13 14 1 2.</_></rects>
      <tilted>0</tilted></_>
    <_>
      <rects>
        <_>
          8 15 18 1 -1.</_>
        <_>
          14 15 6 1 3.</_></rects>
      <tilted>0</tilted></_>
    <_>
      <rects>
        <_>
          9 0 1 3 -1.</_>
        <_>
          9 1 1 1 3.</_></rects>
      <tilted>0</tilted></_>
    <_>
      <rects>
        <_>
          9 4 12 10 -1.</_>
        <_>
          9 4 6 5 2.</_>
        <_>
          15 9 6 5 2.</_></rects>
      <tilted>0</tilted></_>
    <_>
      <rects>
        <_>
          9 6 13 2 -1.</_>
        <_>
          9 7 13 1 2.</_></rects>
      <tilted>0</tilted></_>
    <_>
      <rects>
        <_>
          9 8 12 8 -1.</_>
        <_>
          9 12 12 4 2.</_></rects>
      <tilted>0</tilted></_>
    <_>
      <rects>
        <_>
          10 4 10 9 -1.</_>
        <_>
          10 7 10 3 3.</_></rects>
      <tilted>0</tilted></_>
    <_>
      <rects>
        <_>
          10 6 14 8 -1.</_>
        <_>
          10 6 7 4 2.</_>
        <_>
          17 10 7 4 2.</_></rects>
      <tilted>0</tilted></_>
    <_>
      <rects>
        <_>
          10 15 1 3 -1.</_>
        <_>
          10 16 1 1 3.</_></rects>
      <tilted>0</tilted></_>
    <_>
      <rects>
        <_>
          10 15 2 3 -1.</_>
        <_>
          10 16 2 1 3.</_></rects>
      <tilted>0</tilted></_>
    <_>
      <rects>
        <_>
          11 0 1 3 -1.</_>
        <_>
          11 1 1 1 3.</_></rects>
      <tilted>0</tilted></_>
    <_>
      <rects>
        <_>
          11 0 4 2 -1.</_>
        <_>
          11 0 2 1 2.</_>
        <_>
          13 1 2 1 2.</_></rects>
      <tilted>0</tilted></_>
    <_>
      <rects>
        <_>
          11 1 1 3 -1.</_>
        <_>
          11 2 1 1 3.</_></rects>
      <tilted>0</tilted></_>
    <_>
      <rects>
        <_>
          11 3 7 8 -1.</_>
        <_>
          11 7 7 4 2.</_></rects>
      <tilted>0</tilted></_>
    <_>
      <rects>
        <_>
          11 7 12 7 -1.</_>
        <_>
          15 7 4 7 3.</_></rects>
      <tilted>0</tilted></_>
    <_>
      <rects>
        <_>
          11 9 9 1 -1.</_>
        <_>
          14 9 3 1 3.</_></rects>
      <tilted>0</tilted></_>
    <_>
      <rects>
        <_>
          12 0 1 3 -1.</_>
        <_>
          12 1 1 1 3.</_></rects>
      <tilted>0</tilted></_>
    <_>
      <rects>
        <_>
          12 1 1 3 -1.</_>
        <_>
          12 2 1 1 3.</_></rects>
      <tilted>0</tilted></_>
    <_>
      <rects>
        <_>
          12 2 7 15 -1.</_>
        <_>
          12 7 7 5 3.</_></rects>
      <tilted>0</tilted></_>
    <_>
      <rects>
        <_>
          12 3 1 12 -1.</_>
        <_>
          12 7 1 4 3.</_></rects>
      <tilted>0</tilted></_>
    <_>
      <rects>
        <_>
          12 3 3 3 -1.</_>
        <_>
          12 4 3 1 3.</_></rects>
      <tilted>0</tilted></_>
    <_>
      <rects>
        <_>
          12 3 8 13 -1.</_>
        <_>
          16 3 4 13 2.</_></rects>
      <tilted>0</tilted></_>
    <_>
      <rects>
        <_>
          12 3 12 14 -1.</_>
        <_>
          16 3 4 14 3.</_></rects>
      <tilted>0</tilted></_>
    <_>
      <rects>
        <_>
          12 5 6 4 -1.</_>
        <_>
          14 5 2 4 3.</_></rects>
      <tilted>0</tilted></_>
    <_>
      <rects>
        <_>
          12 5 6 8 -1.</_>
        <_>
          14 5 2 8 3.</_></rects>
      <tilted>0</tilted></_>
    <_>
      <rects>
        <_>
          12 6 8 9 -1.</_>
        <_>
          12 9 8 3 3.</_></rects>
      <tilted>0</tilted></_>
    <_>
      <rects>
        <_>
          12 9 1 2 -1.</_>
        <_>
          12 10 1 1 2.</_></rects>
      <tilted>0</tilted></_>
    <_>
      <rects>
        <_>
          12 9 3 4 -1.</_>
        <_>
          13 9 1 4 3.</_></rects>
      <tilted>0</tilted></_>
    <_>
      <rects>
        <_>
          12 9 4 2 -1.</_>
        <_>
          12 10 4 1 2.</_></rects>
      <tilted>0</tilted></_>
    <_>
      <rects>
        <_>
          13 0 1 3 -1.</_>
        <_>
          13 1 1 1 3.</_></rects>
      <tilted>0</tilted></_>
    <_>
      <rects>
        <_>
          13 0 3 5 -1.</_>
        <_>
          14 0 1 5 3.</_></rects>
      <tilted>0</tilted></_>
    <_>
      <rects>
        <_>
          13 0 3 7 -1.</_>
        <_>
          14 0 1 7 3.</_></rects>
      <tilted>0</tilted></_>
    <_>
      <rects>
        <_>
          13 1 1 3 -1.</_>
        <_>
          13 2 1 1 3.</_></rects>
      <tilted>0</tilted></_>
    <_>
      <rects>
        <_>
          13 2 5 15 -1.</_>
        <_>
          13 7 5 5 3.</_></rects>
      <tilted>0</tilted></_>
    <_>
      <rects>
        <_>
          13 2 6 15 -1.</_>
        <_>
          13 7 6 5 3.</_></rects>
      <tilted>0</tilted></_>
    <_>
      <rects>
        <_>
          13 4 2 4 -1.</_>
        <_>
          13 6 2 2 2.</_></rects>
      <tilted>0</tilted></_>
    <_>
      <rects>
        <_>
          13 5 6 4 -1.</_>
        <_>
          15 5 2 4 3.</_></rects>
      <tilted>0</tilted></_>
    <_>
      <rects>
        <_>
          13 5 6 9 -1.</_>
        <_>
          15 5 2 9 3.</_></rects>
      <tilted>0</tilted></_>
    <_>
      <rects>
        <_>
          13 8 2 2 -1.</_>
        <_>
          13 9 2 1 2.</_></rects>
      <tilted>0</tilted></_>
    <_>
      <rects>
        <_>
          13 8 6 7 -1.</_>
        <_>
          15 8 2 7 3.</_></rects>
      <tilted>0</tilted></_>
    <_>
      <rects>
        <_>
          13 8 4 3 -1.</_>
        <_>
          13 9 4 1 3.</_></rects>
      <tilted>0</tilted></_>
    <_>
      <rects>
        <_>
          13 9 4 1 -1.</_>
        <_>
          15 9 2 1 2.</_></rects>
      <tilted>0</tilted></_>
    <_>
      <rects>
        <_>
          13 9 3 2 -1.</_>
        <_>
          13 10 3 1 2.</_></rects>
      <tilted>0</tilted></_>
    <_>
      <rects>
        <_>
          13 13 6 2 -1.</_>
        <_>
          13 13 3 1 2.</_>
        <_>
          16 14 3 1 2.</_></rects>
      <tilted>0</tilted></_>
    <_>
      <rects>
        <_>
          14 5 3 4 -1.</_>
        <_>
          15 5 1 4 3.</_></rects>
      <tilted>0</tilted></_>
    <_>
      <rects>
        <_>
          14 7 6 7 -1.</_>
        <_>
          16 7 2 7 3.</_></rects>
      <tilted>0</tilted></_>
    <_>
      <rects>
        <_>
          14 8 2 1 -1.</_>
        <_>
          15 8 1 1 2.</_></rects>
      <tilted>0</tilted></_>
    <_>
      <rects>
        <_>
          14 8 1 3 -1.</_>
        <_>
          14 9 1 1 3.</_></rects>
      <tilted>0</tilted></_>
    <_>
      <rects>
        <_>
          14 8 2 2 -1.</_>
        <_>
          14 9 2 1 2.</_></rects>
      <tilted>0</tilted></_>
    <_>
      <rects>
        <_>
          14 9 4 2 -1.</_>
        <_>
          14 10 4 1 2.</_></rects>
      <tilted>0</tilted></_>
    <_>
      <rects>
        <_>
          14 10 7 6 -1.</_>
        <_>
          14 13 7 3 2.</_></rects>
      <tilted>0</tilted></_>
    <_>
      <rects>
        <_>
          15 0 1 3 -1.</_>
        <_>
          15 1 1 1 3.</_></rects>
      <tilted>0</tilted></_>
    <_>
      <rects>
        <_>
          15 6 6 6 -1.</_>
        <_>
          17 6 2 6 3.</_></rects>
      <tilted>0</tilted></_>
    <_>
      <rects>
        <_>
          15 7 3 4 -1.</_>
        <_>
          15 9 3 2 2.</_></rects>
      <tilted>0</tilted></_>
    <_>
      <rects>
        <_>
          15 8 2 2 -1.</_>
        <_>
          15 9 2 1 2.</_></rects>
      <tilted>0</tilted></_>
    <_>
      <rects>
        <_>
          15 9 2 1 -1.</_>
        <_>
          16 9 1 1 2.</_></rects>
      <tilted>0</tilted></_>
    <_>
      <rects>
        <_>
          15 9 2 2 -1.</_>
        <_>
          15 10 2 1 2.</_></rects>
      <tilted>0</tilted></_>
    <_>
      <rects>
        <_>
          15 9 3 3 -1.</_>
        <_>
          15 10 3 1 3.</_></rects>
      <tilted>0</tilted></_>
    <_>
      <rects>
        <_>
          16 0 3 3 -1.</_>
        <_>
          17 0 1 3 3.</_></rects>
      <tilted>0</tilted></_>
    <_>
      <rects>
        <_>
          16 4 4 12 -1.</_>
        <_>
          16 8 4 4 3.</_></rects>
      <tilted>0</tilted></_>
    <_>
      <rects>
        <_>
          16 5 6 5 -1.</_>
        <_>
          18 5 2 5 3.</_></rects>
      <tilted>0</tilted></_>
    <_>
      <rects>
        <_>
          16 5 5 9 -1.</_>
        <_>
          16 8 5 3 3.</_></rects>
      <tilted>0</tilted></_>
    <_>
      <rects>
        <_>
          16 7 6 6 -1.</_>
        <_>
          18 7 2 6 3.</_></rects>
      <tilted>0</tilted></_>
    <_>
      <rects>
        <_>
          16 15 8 2 -1.</_>
        <_>
          16 15 4 1 2.</_>
        <_>
          20 16 4 1 2.</_></rects>
      <tilted>0</tilted></_>
    <_>
      <rects>
        <_>
          16 16 6 2 -1.</_>
        <_>
          16 16 3 1 2.</_>
        <_>
          19 17 3 1 2.</_></rects>
      <tilted>0</tilted></_>
    <_>
      <rects>
        <_>
          17 3 2 2 -1.</_>
        <_>
          17 4 2 1 2.</_></rects>
      <tilted>0</tilted></_>
    <_>
      <rects>
        <_>
          17 4 3 5 -1.</_>
        <_>
          18 4 1 5 3.</_></rects>
      <tilted>0</tilted></_>
    <_>
      <rects>
        <_>
          17 6 3 7 -1.</_>
        <_>
          18 6 1 7 3.</_></rects>
      <tilted>0</tilted></_>
    <_>
      <rects>
        <_>
          17 7 6 7 -1.</_>
        <_>
          19 7 2 7 3.</_></rects>
      <tilted>0</tilted></_>
    <_>
      <rects>
        <_>
          17 8 1 8 -1.</_>
        <_>
          17 12 1 4 2.</_></rects>
      <tilted>0</tilted></_>
    <_>
      <rects>
        <_>
          17 10 3 5 -1.</_>
        <_>
          18 10 1 5 3.</_></rects>
      <tilted>0</tilted></_>
    <_>
      <rects>
        <_>
          17 15 2 3 -1.</_>
        <_>
          17 16 2 1 3.</_></rects>
      <tilted>0</tilted></_>
    <_>
      <rects>
        <_>
          17 16 2 2 -1.</_>
        <_>
          17 17 2 1 2.</_></rects>
      <tilted>0</tilted></_>
    <_>
      <rects>
        <_>
          18 1 3 2 -1.</_>
        <_>
          19 1 1 2 3.</_></rects>
      <tilted>0</tilted></_>
    <_>
      <rects>
        <_>
          18 7 6 6 -1.</_>
        <_>
          20 7 2 6 3.</_></rects>
      <tilted>0</tilted></_>
    <_>
      <rects>
        <_>
          19 1 2 8 -1.</_>
        <_>
          20 1 1 8 2.</_></rects>
      <tilted>0</tilted></_>
    <_>
      <rects>
        <_>
          19 6 2 7 -1.</_>
        <_>
          20 6 1 7 2.</_></rects>
      <tilted>0</tilted></_>
    <_>
      <rects>
        <_>
          19 7 3 6 -1.</_>
        <_>
          20 7 1 6 3.</_></rects>
      <tilted>0</tilted></_>
    <_>
      <rects>
        <_>
          19 9 3 5 -1.</_>
        <_>
          20 9 1 5 3.</_></rects>
      <tilted>0</tilted></_>
    <_>
      <rects>
        <_>
          19 12 3 1 -1.</_>
        <_>
          20 12 1 1 3.</_></rects>
      <tilted>0</tilted></_>
    <_>
      <rects>
        <_>
          19 15 1 3 -1.</_>
        <_>
          19 16 1 1 3.</_></rects>
      <tilted>0</tilted></_>
    <_>
      <rects>
        <_>
          20 1 1 3 -1.</_>
        <_>
          20 2 1 1 3.</_></rects>
      <tilted>0</tilted></_>
    <_>
      <rects>
        <_>
          20 5 6 7 -1.</_>
        <_>
          22 5 2 7 3.</_></rects>
      <tilted>0</tilted></_>
    <_>
      <rects>
        <_>
          20 8 10 4 -1.</_>
        <_>
          25 8 5 4 2.</_></rects>
      <tilted>0</tilted></_>
    <_>
      <rects>
        <_>
          20 13 9 1 -1.</_>
        <_>
          23 13 3 1 3.</_></rects>
      <tilted>0</tilted></_>
    <_>
      <rects>
        <_>
          20 15 1 3 -1.</_>
        <_>
          20 16 1 1 3.</_></rects>
      <tilted>0</tilted></_>
    <_>
      <rects>
        <_>
          21 5 9 9 -1.</_>
        <_>
          24 5 3 9 3.</_></rects>
      <tilted>0</tilted></_>
    <_>
      <rects>
        <_>
          21 14 4 2 -1.</_>
        <_>
          21 14 2 1 2.</_>
        <_>
          23 15 2 1 2.</_></rects>
      <tilted>0</tilted></_>
    <_>
      <rects>
        <_>
          21 15 1 3 -1.</_>
        <_>
          21 16 1 1 3.</_></rects>
      <tilted>0</tilted></_>
    <_>
      <rects>
        <_>
          22 3 4 6 -1.</_>
        <_>
          22 6 4 3 2.</_></rects>
      <tilted>0</tilted></_>
    <_>
      <rects>
        <_>
          22 13 3 5 -1.</_>
        <_>
          23 13 1 5 3.</_></rects>
      <tilted>0</tilted></_>
    <_>
      <rects>
        <_>
          22 14 1 3 -1.</_>
        <_>
          22 15 1 1 3.</_></rects>
      <tilted>0</tilted></_>
    <_>
      <rects>
        <_>
          24 7 2 5 -1.</_>
        <_>
          25 7 1 5 2.</_></rects>
      <tilted>0</tilted></_>
    <_>
      <rects>
        <_>
          24 14 6 2 -1.</_>
        <_>
          24 14 3 1 2.</_>
        <_>
          27 15 3 1 2.</_></rects>
      <tilted>0</tilted></_>
    <_>
      <rects>
        <_>
          26 3 3 7 -1.</_>
        <_>
          27 3 1 7 3.</_></rects>
      <tilted>0</tilted></_>
    <_>
      <rects>
        <_>
          26 5 4 1 -1.</_>
        <_>
          28 5 2 1 2.</_></rects>
      <tilted>0</tilted></_>
    <_>
      <rects>
        <_>
          26 7 4 6 -1.</_>
        <_>
          28 7 2 6 2.</_></rects>
      <tilted>0</tilted></_>
    <_>
      <rects>
        <_>
          27 1 3 2 -1.</_>
        <_>
          28 1 1 2 3.</_></rects>
      <tilted>0</tilted></_>
    <_>
      <rects>
        <_>
          27 1 2 12 -1.</_>
        <_>
          27 1 1 6 2.</_>
        <_>
          28 7 1 6 2.</_></rects>
      <tilted>0</tilted></_>
    <_>
      <rects>
        <_>
          27 3 3 9 -1.</_>
        <_>
          28 3 1 9 3.</_></rects>
      <tilted>0</tilted></_>
    <_>
      <rects>
        <_>
          28 7 2 5 -1.</_>
        <_>
          29 7 1 5 2.</_></rects>
      <tilted>0</tilted></_>
    <_>
      <rects>
        <_>
          28 9 2 2 -1.</_>
        <_>
          29 9 1 2 2.</_></rects>
      <tilted>0</tilted></_>
    <_>
      <rects>
        <_>
          28 10 2 6 -1.</_>
        <_>
          28 10 1 3 2.</_>
        <_>
          29 13 1 3 2.</_></rects>
      <tilted>0</tilted></_></features></cascade>
</opencv_storage>
